digraph Tree {
node [shape=box, style="filled, rounded", color="black", fontname=helvetica] ;
edge [fontname=helvetica] ;
0 [label="petal length (cm) <= 2.6\ngini = 0.66\nsamples = 94\nvalue = [49, 45, 56]\nclass = virginica", fillcolor="#f6f1fd"] ;
1 [label="gini = 0.0\nsamples = 31\nvalue = [49, 0, 0]\nclass = setosa", fillcolor="#e58139"] ;
0 -> 1 [labeldistance=2.5, labelangle=45, headlabel="True"] ;
2 [label="petal length (cm) <= 4.75\ngini = 0.49\nsamples = 63\nvalue = [0, 45, 56]\nclass = virginica", fillcolor="#e6d8fa"] ;
0 -> 2 [labeldistance=2.5, labelangle=-45, headlabel="False"] ;
3 [label="sepal width (cm) <= 2.55\ngini = 0.16\nsamples = 25\nvalue = [0, 41, 4]\nclass = versicolor", fillcolor="#4ce88d"] ;
2 -> 3 ;
4 [label="petal width (cm) <= 1.6\ngini = 0.38\nsamples = 7\nvalue = [0, 12, 4]\nclass = versicolor", fillcolor="#7beeab"] ;
3 -> 4 ;
5 [label="gini = 0.0\nsamples = 6\nvalue = [0, 12, 0]\nclass = versicolor", fillcolor="#39e581"] ;
4 -> 5 ;
6 [label="gini = 0.0\nsamples = 1\nvalue = [0, 0, 4]\nclass = virginica", fillcolor="#8139e5"] ;
4 -> 6 ;
7 [label="gini = 0.0\nsamples = 18\nvalue = [0, 29, 0]\nclass = versicolor", fillcolor="#39e581"] ;
3 -> 7 ;
8 [label="petal length (cm) <= 4.95\ngini = 0.13\nsamples = 38\nvalue = [0, 4, 52]\nclass = virginica", fillcolor="#8b48e7"] ;
2 -> 8 ;
9 [label="sepal length (cm) <= 6.5\ngini = 0.47\nsamples = 5\nvalue = [0, 3, 5]\nclass = virginica", fillcolor="#cdb0f5"] ;
8 -> 9 ;
10 [label="gini = 0.0\nsamples = 3\nvalue = [0, 0, 5]\nclass = virginica", fillcolor="#8139e5"] ;
9 -> 10 ;
11 [label="gini = 0.0\nsamples = 2\nvalue = [0, 3, 0]\nclass = versicolor", fillcolor="#39e581"] ;
9 -> 11 ;
12 [label="sepal width (cm) <= 2.75\ngini = 0.04\nsamples = 33\nvalue = [0, 1, 47]\nclass = virginica", fillcolor="#843de6"] ;
8 -> 12 ;
13 [label="sepal length (cm) <= 6.15\ngini = 0.22\nsamples = 6\nvalue = [0, 1, 7]\nclass = virginica", fillcolor="#9355e9"] ;
12 -> 13 ;
14 [label="petal width (cm) <= 1.75\ngini = 0.38\nsamples = 3\nvalue = [0, 1, 3]\nclass = virginica", fillcolor="#ab7bee"] ;
13 -> 14 ;
15 [label="gini = 0.0\nsamples = 1\nvalue = [0, 1, 0]\nclass = versicolor", fillcolor="#39e581"] ;
14 -> 15 ;
16 [label="gini = 0.0\nsamples = 2\nvalue = [0, 0, 3]\nclass = virginica", fillcolor="#8139e5"] ;
14 -> 16 ;
17 [label="gini = 0.0\nsamples = 3\nvalue = [0, 0, 4]\nclass = virginica", fillcolor="#8139e5"] ;
13 -> 17 ;
18 [label="gini = 0.0\nsamples = 27\nvalue = [0, 0, 40]\nclass = virginica", fillcolor="#8139e5"] ;
12 -> 18 ;
}